[ -7.53490094e-05   2.58613261e-03  -5.60899125e-03   1.03311278e-02
  -1.57257337e-02   1.26986429e-02   6.63346704e-03  -2.05338299e-02
  -1.27537614e-02   4.20832029e-03   4.04467690e-04  -1.14573445e-03
   1.46247784e-03   2.92684720e-03   8.11609346e-03  -1.18476227e-02
   1.43860253e-02   5.13980445e-03   2.39885226e-02  -2.35256087e-03
   1.05915489e-02   7.76357250e-03  -6.00873958e-03  -7.52788130e-03
   4.88956412e-03   1.28094628e-02   1.96889993e-02  -1.39001664e-02
  -2.35983804e-02   3.78474570e-03  -1.23654958e-02  -1.77949012e-04
  -8.64315126e-03  -5.56114421e-04   1.48050794e-02  -7.25272158e-03
   1.52982529e-02   4.25436953e-03  -1.20707760e-02   2.02691229e-03
  -2.14141514e-03  -6.98719826e-03   5.65621583e-03  -4.34383890e-03
   2.07638554e-02   1.32782990e-03   1.33400597e-03  -1.99252856e-03
   2.73619872e-03   1.40848765e-02   2.01660749e-02  -1.06877810e-03
   8.38297792e-03   7.38502620e-03  -2.06753127e-02  -5.51263895e-03
  -1.56105566e-03   5.99523168e-03   5.24209579e-03  -1.22389093e-03
   5.14559634e-03  -1.01605980e-02   2.70700920e-02  -1.34549113e-02
   3.94391082e-03   1.10939080e-02   7.16039492e-03   2.50464343e-02
   1.30268047e-02   1.06168189e-03  -1.46792978e-02   2.51596211e-03
  -1.27936564e-02  -1.32203073e-04   1.32212639e-02   1.72371999e-03
   2.29724008e-03  -3.45809059e-03   2.30894354e-03   8.12418945e-03
   2.86430847e-02   3.00531201e-02   1.20347496e-02   6.01495942e-03
   1.23227143e-03   1.05689010e-02  -5.40364813e-03  -1.00641616e-03
   4.99976845e-03  -1.01526850e-03  -2.30386332e-02  -4.20530187e-03
  -1.07599553e-02  -2.42069755e-02   9.61948186e-03   1.01017905e-02
   1.06040051e-03  -9.60258953e-03  -1.46828890e-02  -6.52794307e-03
  -2.46225335e-02  -9.24331415e-03   1.95128582e-02  -2.88478797e-03
  -4.37789736e-03   2.35092491e-04  -1.10155959e-02  -4.49506333e-04
   1.93934888e-02  -9.95265087e-04  -2.59510614e-03   2.50932109e-02
  -2.73791864e-03  -7.19636213e-03   5.45053231e-03  -9.63475369e-03
   1.93116479e-02  -9.67252534e-03   2.23381054e-02   1.82713494e-02
   1.00027688e-03  -2.05714498e-02   4.30729799e-03   1.96275841e-02
   4.20769956e-03  -1.25859175e-02   1.61877479e-02  -2.93873586e-02]
